{
  "layer1_weights": [
    [
      26,
      22,
      1,
      -59
    ],
    [
      58,
      15,
      -53,
      -16
    ],
    [
      -2,
      -40,
      27,
      -61
    ]
  ],
  "layer1_bias": [
    5,
    -2,
    -42
  ],
  "layer2_weights": [
    [
      63,
      13,
      -1
    ],
    [
      44,
      36,
      -15
    ]
  ],
  "layer2_bias": [
    59,
    -47
  ],
  "layer1_weights_fp": [
    [
      0.21199649572372437,
      0.17440266907215118,
      0.009906473569571972,
      -0.4703112840652466
    ],
    [
      0.46430739760398865,
      0.12576298415660858,
      -0.4242819547653198,
      -0.13306109607219696
    ],
    [
      -0.01722653955221176,
      -0.32155749201774597,
      0.2142995446920395,
      -0.4875955581665039
    ]
  ],
  "layer1_bias_fp": [
    0.04136962443590164,
    -0.02038780227303505,
    -0.331961989402771
  ],
  "layer2_weights_fp": [
    [
      0.4986698031425476,
      0.1063266396522522,
      -0.015421313233673573
    ],
    [
      0.3531108796596527,
      0.28904083371162415,
      -0.12126251310110092
    ]
  ],
  "layer2_bias_fp": [
    0.4688904881477356,
    -0.3727074861526489
  ]
}